[[-3.84363336e-01  6.79321253e-01 -4.90068246e-01  5.98889277e-01
  -4.34524540e-01  8.79133812e-01 -5.58382613e-01 -1.92308802e+00
  -3.43124781e-01 -1.46609694e+00 -1.63223958e-01 -1.89786690e-01
  -9.24533945e+00  6.14199681e-04  7.33800416e-01 -1.92438766e-01
  -8.78713562e-01 -1.82643457e+00  2.41910119e-01  7.66389440e-01]
 [ 7.95931657e-01 -3.11230708e-01 -5.12808396e-01 -1.53384728e+00
   1.10239646e-01 -5.36063844e-01 -1.26791751e+00  9.74410154e-01
   2.72296665e-02  2.80073456e-01  3.35537378e-01 -5.73591841e+00
   1.65870762e+00 -1.36479878e+00 -1.02817785e+00 -6.05465580e-01
  -7.66492215e-01  1.66095836e+00 -4.19746839e+00  9.33994027e-01]
 [ 7.99639053e+00 -2.45833099e-01 -6.53367760e-01 -8.02270664e-01
  -6.10193025e-01 -1.61138725e-01  5.53884768e-01  9.23280152e-01
  -5.52043543e-02 -5.84185733e-01  1.61747809e+00 -1.00601690e+00
  -9.13335085e+00  8.06264871e-01 -2.07260367e+00 -4.49652002e-02
   9.22128360e-01  8.77075903e-01  1.20514995e+00 -4.47626854e+00]
 [ 3.43969163e-01  1.07763200e+00 -1.46992012e-01  2.59185529e-01
   6.63069982e-01 -5.99066743e-01 -4.11853261e-02 -8.90825604e-01
  -7.59608810e-01  8.44420708e-01  7.78189147e-01 -1.08616036e+00
   2.57232514e-01  1.14066271e+00 -9.19077776e-01 -2.62045354e-01
   8.24450540e+00  5.43454168e-01  1.86469420e+00 -1.15309019e-01]
 [-8.94583197e-02  7.68216437e-01 -4.30991885e-01  1.46566048e+00
   4.23680514e-01  7.17754785e-01  1.01624124e+00  5.81770236e-01
  -9.49146652e-01 -1.29688575e+00  1.56774182e+00 -1.49080089e+00
  -9.69054184e-01  4.28706088e-01 -2.70255103e-01 -2.00467316e+00
   2.36640419e+00 -3.95018046e-01 -9.68077117e-01 -3.48433042e-01]
 [-2.03920672e+00  3.86210825e-01  6.66169899e-01  1.82681747e+00
  -9.19854130e-01 -2.05501334e-01 -7.73979592e-01 -1.07145503e+00
   5.80560062e-01 -2.54815410e-02  1.72141480e+00  1.70152476e+00
  -1.03889162e+00  1.44868984e+00 -8.63903794e-01 -9.83960361e-01
   2.14170306e+00 -2.15213567e+00 -5.59314969e-02  1.20296440e-01]
 [-9.02448623e-01 -3.01117069e-01  5.97669156e-01 -1.37425213e+00
  -2.53766226e-01 -2.59784173e-02 -1.40678265e+00  1.78843957e+00
  -7.31257636e-01  6.99094440e-01  7.80091476e-03  7.27880551e-01
   1.47045803e-01 -1.96753282e+00 -8.33764768e-01  5.77754351e-01
  -1.87805012e+00 -6.72519918e-02 -2.17824483e-01  1.75317418e+00]
 [ 1.87629540e+00  7.74287768e-01  2.77135583e-01 -1.45906068e+00
   4.19224609e-01 -8.94073041e-01 -6.84004055e-01 -9.09799411e-01
   1.04308971e+00  4.54281457e-01  7.56340658e-01  5.85684161e-02
   6.44029499e-01 -5.03039582e-01 -2.31027989e-01 -1.03939451e+00
   1.50849820e+00  1.68808481e+00  6.03085971e-02 -2.15722629e+00]
 [ 6.32522392e-02 -4.50008557e-01  1.27532206e-01 -2.32997294e-01
  -1.88931849e-01 -1.00339021e+00  6.16773742e-01 -1.90284588e+00
  -6.24928391e-01 -1.59389895e+00 -1.74641803e+00  8.96506521e-01
  -7.61460660e-01  2.42889117e+00 -1.48559078e+00 -3.23379206e+00
  -2.20333260e-01 -2.25400904e+00 -9.28529254e-02  9.57303225e-01]
 [-1.14166486e-01 -1.89146716e-01 -1.68800319e+00 -3.50996505e-01
  -5.38080505e-01  4.43216692e-01 -6.23487964e-01 -4.51672760e-01
  -1.36382710e+00  9.74432976e-02 -9.07336045e+00 -1.90739414e+00
   9.75833352e-01 -3.85535792e-01  1.06311548e-01  2.88138205e-01
   8.64767139e+00  1.26128471e+00  7.10896325e-01 -1.29812410e+00]
 [-3.68937650e-01 -9.45471226e-01  9.68460864e-01  5.98875759e-01
   8.15766666e-02  1.74818132e+00 -6.77235782e-01 -1.21340675e+00
  -2.42244363e-01 -3.64277680e-01 -2.02638642e+00  3.97263644e-01
  -5.54025000e-01  1.31319126e-01 -6.98891438e-01 -3.18595455e-01
   3.71857736e-01  1.04330821e+00  6.81506856e-01 -4.23067790e-01]
 [-1.64911629e-01 -8.93419920e+00  5.48719037e-01 -8.37734873e-02
  -3.82130917e-01  8.35080480e-01  1.21511707e-01 -6.52791533e-01
   2.29869525e-01  9.04871678e-02  6.57510496e-01 -9.52335059e-03
  -1.73414766e+00  8.30512244e-01 -3.33633036e-01  5.85288068e+00
   2.30852153e+00  2.14106104e+00  1.62569352e+00 -8.36551204e+00]
 [ 1.58945662e+00 -1.41665725e+00  6.39318743e-01  3.13372745e-01
  -5.24306064e-01 -1.43874485e+00 -1.35257894e+00 -5.85894585e-01
   2.22513655e-02 -1.78275801e+00 -4.66313455e-01 -4.20739125e-01
  -1.14438343e+00  3.05219307e-01 -6.62314282e-01 -7.76291536e-01
   1.62813682e+00  9.36224495e+00  9.15941003e-01 -1.17596733e-01]
 [ 9.31094071e+00  3.47782396e-01  2.04936519e-01  8.80177838e+00
  -1.60321097e+00 -5.98397159e-01  6.26111121e-01  4.11598287e-01
   4.07919710e+00 -1.06840162e+00 -4.57893911e-01 -7.28067681e-01
   1.40335844e-01  4.08947847e-01  6.64409866e-01 -6.03177498e-01
  -4.83179853e-01 -1.94588547e+00 -1.92193777e+00  1.38709850e+00]
 [ 9.19913880e-02 -1.21905112e-02 -1.44679119e+00 -1.90401116e-01
   7.50518605e-01 -4.54402982e-02 -9.12816787e-01 -4.45136366e-01
  -1.44992188e+00  1.83481097e+00  1.35521993e+00  8.80999915e-01
  -5.06824063e-01 -1.45618734e-01  8.25166861e-01 -1.09321462e+00
   4.25275129e-01  4.84911892e-01  9.74595534e-01  3.27882887e-01]
 [-4.46978557e-01 -2.79085273e-01  2.71613562e-01 -1.12458968e+00
   2.42934165e-01  7.38127843e-01 -1.10602967e-01 -5.32393202e-01
   1.79514351e+00 -1.42751533e+00 -8.40707852e-01 -9.58320160e-01
  -1.23818864e+00 -2.41331081e+00  2.45548940e+00  3.41258910e-01
   5.75957613e-01  1.27370550e+00 -2.55814413e-01  1.55070926e-01]
 [ 1.33094895e+00 -1.55591205e+00  2.31912300e-01 -8.39937444e-01
   5.31899305e-02 -5.82054968e-01  1.06954436e+00  1.75007649e+00
  -6.47896171e-01  9.97049441e-01 -1.86551164e+00 -5.25591950e-01
  -7.84180237e-01 -7.23489103e-01 -6.70788922e-01  3.09995485e-01
  -7.39253216e-01 -3.08305853e-02 -9.26811517e-01  1.11699830e+00]
 [ 5.23269275e-01 -8.31533371e-01 -1.80778781e+00 -4.42965896e-01
  -2.71647933e-01 -1.37987479e+00  8.36838572e-01 -1.00211221e-01
   6.02832827e-02 -1.27850435e+00 -4.89631210e-01  8.45631193e-01
   1.69851188e-01  5.33094666e-01  2.42815431e-01 -5.90266356e-01
  -1.32775168e+00 -5.54611720e-01  4.18748016e-01  5.47045949e-02]
 [ 3.31420308e-01 -1.69435731e+00 -1.22310535e+00  1.82005694e+00
   1.54663400e+00  4.17697257e-01  4.58048766e-01  1.61980668e+00
  -4.40992870e-01  4.31968482e-01  3.12512272e-01 -2.27848857e-01
  -7.08011135e-02  1.90961757e+00  3.63475499e-01  9.87896432e-01
  -9.59933875e-03  4.04160258e-01 -1.26463982e+00 -8.15371744e-01]
 [ 1.43927636e+00  8.29506274e-01  1.09606831e+00  9.08208407e-01
  -1.19313207e+00 -7.88846941e-01  5.70613315e-01  9.99816981e-01
  -1.09443935e+00 -4.27735460e-01 -8.28371820e-01  1.53597031e+00
   1.24866062e+00 -2.19404245e+00  1.05606934e+00 -1.65250691e+00
   1.17688036e+00  4.52407505e-01 -5.42819092e-01  1.46344344e+00]
 [-2.33342229e-01 -1.56733007e+00  5.21368265e-01  1.65568928e+00
  -1.71957045e-01  8.16116245e-01 -1.10477197e-01  4.27143341e-01
   1.48987490e+00 -5.49200742e-01  1.32686667e+00  8.64297786e-01
  -8.46401881e-01 -2.38787445e+00  4.39166661e-01  5.03874755e-01
   2.25754656e-01 -1.34719889e-01  1.25196957e+00 -4.98431030e-01]
 [-5.05865055e-01 -1.05621448e+00  1.20023837e+00 -5.19752907e-01
  -6.94764820e-02  1.10539768e+00  1.28943366e+00  2.50120832e-02
   9.43573645e-01 -4.21178909e-01  2.08148235e+00  1.19924970e+00
  -7.90320295e-01  3.30525143e-01 -2.23275591e+00  2.01594160e+00
   7.00161433e-01  9.87540987e-01 -6.83542371e-01 -4.86821140e-01]
 [-7.74919674e-01  7.86151857e-01  6.20489582e-01  7.94665124e-01
  -6.72428921e-01  3.07953060e-01  1.19796299e+00  7.18981292e-01
  -4.25997613e-02 -3.72593341e+00  1.03889829e+00 -2.17306560e-01
  -1.91237067e+00  7.62957456e-01  1.04559369e+00  2.04029722e+00
  -1.01139416e+00 -3.80498352e-01  1.30917336e+00  1.03368327e+00]
 [ 6.73282597e-01 -2.01990447e-01 -1.05860677e+00  9.34993110e-01
   1.24540045e-01  6.33195789e-01  6.80394651e-01  1.49184635e+00
  -1.44464940e+00  1.44970765e-01 -1.04873608e+00 -5.55296277e-01
  -1.03494527e+00 -2.47604315e+00  1.36437801e+00  1.18775275e+00
   1.84007342e+00 -1.38171194e+00 -8.37036862e-01 -1.16425713e-01]
 [-2.99452742e+00 -1.94926507e+00  2.10480306e+00  1.08739113e+00
  -5.66189350e-01  8.07799903e-01  3.29911377e-01  2.77012911e+00
  -9.62767066e-01 -6.83390234e-01 -8.67668052e-01  2.40783744e-01
   5.26562466e-01 -4.97134019e-01  4.71795358e-01  2.22237386e-01
   7.20348022e-01 -7.33881720e-01  5.61902892e-03  5.74970517e-01]
 [ 1.42665583e+00 -5.54244422e-01 -4.28123801e-01 -1.21250776e+00
  -6.12061673e-01 -1.02370636e+00  1.47816931e+00 -3.45850951e+00
   4.67505891e-01 -2.37277260e+00 -8.26393618e-01  1.11475551e+00
   1.26639745e+00 -1.06183049e+01  8.91770100e-01  6.92871744e-01
  -2.28789081e+00  8.52303846e+00  4.61986222e-01 -9.05526501e-01]
 [ 1.33478369e+00 -2.09309689e-01 -1.04262805e+00  1.54303982e+00
  -8.52742894e-01 -5.58636277e-01 -3.14312965e-01 -3.42899466e-02
   1.13542266e+00 -1.80510610e+00 -1.28728618e+00  5.76589110e-01
  -4.76483472e+00 -3.75153734e-01 -2.22662369e-01  6.93262163e-01
   6.17246364e-01  8.62793085e-01 -1.56449078e-01  1.87155934e+00]
 [-2.97412498e-01 -2.59786644e-01  2.32833927e-01  6.22580553e-01
   6.22962306e-01 -4.03065349e-01  9.37463490e-02 -6.09266212e-01
   7.38456200e-01  3.50632966e-01  1.27172247e+00 -1.57926237e+00
   1.97787970e-02 -5.38389062e-01  1.77909054e-01 -2.33617978e-01
  -2.13795518e-01  2.32535559e+00  8.94811551e-01 -8.35144652e-01]
 [ 3.54056238e-01 -2.19841112e-01  2.11508129e+00  3.81629491e-01
   1.29474673e+00  1.55767924e-01  2.84104098e-01 -6.50442746e+00
  -3.95525628e-01  4.19970761e-01 -1.32566730e+00  8.25313051e-01
   1.40242894e+00  3.93687090e-01 -1.39622635e+00  7.44925291e-01
  -4.18397520e-02  1.07554347e+00 -1.84032284e+00  2.59166887e+00]
 [-2.63306789e+00  6.63246132e-02 -9.62349512e-01 -3.01629824e-02
  -6.30340649e-01 -1.19601364e+00 -3.15953820e+00  4.31519861e-01
   4.53431376e-01 -1.69759171e+00  4.48968386e-01  7.29657406e-01
  -1.49951656e+00 -1.43257939e+00 -4.68322341e-01 -3.64564212e-01
   6.43395054e-01  5.72826991e-01  7.95519759e-01 -6.65010321e-01]
 [ 4.38342990e-01  1.72279709e-01  7.02912409e-01  5.08508306e-01
   2.96282536e-01 -1.16349507e+00 -1.45922623e+00 -1.19120664e+00
  -6.96670711e-01  9.80671301e-01 -5.63453870e-01  1.30832922e+00
   5.01015052e-01  1.08159350e-01 -4.54057362e-01 -9.39807685e-01
  -6.07642214e-01 -4.72916869e-01 -1.74245425e+00 -1.31732635e+00]
 [ 1.61053099e-01  7.61580875e-01 -5.90397282e-01 -2.26294017e+00
   3.86649731e-01 -4.03717283e-01 -1.49709392e+00  1.48698117e-01
   2.04787643e-01  2.14712802e-01 -1.91499851e-01  1.39076308e+00
   4.41490377e-01  1.16261482e+00  8.02149618e-01  2.61892234e-01
   1.14991220e+00  1.76934567e+00 -1.02634317e+00 -7.88716087e-02]
 [ 2.72525929e-01  9.23974824e-02  2.30674325e-01 -6.45656532e-01
   6.37594284e-01 -1.41568154e+00  6.26760452e-01  2.06465660e-01
   7.36801885e-01 -2.87538700e-01 -1.66257773e+00  2.61021307e-01
   4.97301342e-01 -2.98682386e-01  2.93950680e-01 -5.81678514e-01
  -2.71287195e+00 -5.44806479e-02  5.45277039e-01  4.97778220e-02]
 [-1.36046538e+00 -7.38918234e+00  1.37751641e+00  4.92119129e-02
  -7.44145180e-02  1.69858700e+00  3.24635355e-01 -9.27261139e-01
  -6.94176882e-01  7.63724579e-01  1.08360970e+00 -1.47992875e+00
   6.16241034e-02  2.42323894e+00 -9.68799041e+00  5.35397044e-01
   5.21524150e-01 -9.83563847e-01  4.21621402e-01 -1.66620913e+00]
 [ 1.28324080e+00  8.30948190e-01 -1.03632611e-02 -1.07144528e+00
  -1.01725617e+00 -1.10689242e+00  1.08814680e+00 -9.38647263e-01
   6.41691845e-01  1.59707326e+00 -6.73052105e+00 -5.62627671e-01
  -1.75469204e+00  1.72598722e+00  4.79825830e-01  5.19081144e+00
  -3.65815499e-01 -3.77151390e-01  1.93737167e+00  6.84372106e-02]
 [-4.40094337e-01  8.31591185e+00 -1.17829133e-01 -8.29283499e-01
   1.82635732e-01 -1.74520722e-01  3.46589939e-01 -5.17216241e-01
   1.00851179e+00  1.03833701e+00  1.26451412e+00 -6.49736618e-01
  -2.77422488e-02  5.72938238e-01  3.57373112e-01  8.74055212e-01
   2.78911867e-01  1.67835165e-01  2.34040068e-01  6.72962410e-01]
 [ 4.63554176e+00 -7.73418470e-01 -7.59527025e-01  7.98660814e-01
  -4.41937263e-01 -5.52177982e-01 -1.32689562e-01  2.13139343e+00
  -6.00290553e-01  4.04779152e-01 -1.81117521e+00  1.93323394e+00
  -5.84235456e-01 -1.26571169e-01  3.31066819e-01 -3.53104784e-01
  -1.05190724e+00  4.94716310e-01  5.87004654e-01  6.31518348e-01]
 [-6.83321209e-01 -1.00961532e+00 -3.65417002e-01  1.86372752e+00
   1.06798273e+00 -2.02294526e+00 -5.16899696e-01 -3.62801721e-01
   9.07578216e-01 -5.38852688e-01  1.01038582e+00  1.90154594e+00
   1.81567621e-01 -2.49462764e-02 -6.97268244e-01 -6.92823030e-01
   8.84158528e-01  1.00506345e+00  3.96258043e-01 -3.71692451e-01]
 [ 3.20178840e-01  1.15122656e+00 -2.27444052e+00  6.52946465e-01
  -7.99230343e-01  2.17727487e+00  4.37575175e-01  2.08402856e+00
   6.57389936e-01  4.66317628e-01 -1.67632674e-01  7.23374447e-01
  -1.68139336e+00 -9.23955400e-01 -4.68880053e-01 -6.82818127e-02
   1.93047375e+00  1.51187903e-01  7.29026289e-01  2.07406651e+00]
 [-8.87046381e-01 -1.11507307e+00  4.55130086e-01 -3.28833408e-01
  -1.46996458e+00  2.34643401e-01  5.76000221e-01  9.74760287e-01
  -7.62324896e-02 -2.79110597e-01 -3.67081158e-01  4.51909392e+00
   2.66584278e-01  3.94973685e-01  7.51601633e-01  1.69227843e-01
  -7.08520206e-02 -2.23294486e+00 -5.75175487e-01 -3.70232616e-01]
 [-7.21799323e-01  4.46684842e-01  6.79473274e-01  1.72363377e+00
   7.92756172e-01 -8.05651120e-01  8.35712307e-02  1.33481569e+00
   9.57750208e-02 -1.96718360e+00 -1.71844045e+00  4.04033140e-01
  -9.02745916e-02 -9.16569964e-01 -2.78163850e-01 -1.41021674e+00
  -1.54452817e+00  7.26256749e-01  1.83093472e+00 -1.46457972e+00]
 [-3.86344543e-01 -1.45533968e+00 -2.47798667e+00  7.36015029e-01
  -1.03798891e+00 -6.29073645e-01  9.53156986e-01  1.15564748e+00
   6.11415772e-01  4.50836820e-01  6.53793032e-02 -1.77192151e+00
  -1.21420987e+00 -8.05089548e-01 -9.01919529e-01  1.30088139e-01
  -1.20960107e+00 -1.34909667e+00  5.34530080e-01 -1.07509305e-01]
 [ 1.52553278e+00 -1.50395691e+00  5.61035345e-01 -1.52839041e-01
  -1.58015816e+00 -4.63472241e-01  1.33449699e+00 -7.76224970e-01
   5.37486205e-01 -7.53517796e-01 -1.52322997e-01 -1.20440230e+00
   2.79795119e-01 -6.67171352e-01  1.07180577e+00 -1.26098675e+00
  -8.34509121e-01 -7.85425508e-01 -7.68806451e-02  2.38744120e+00]],[[ 7.12290682e-02 -1.80008206e+00  1.76994716e-01  1.02368955e+00
  -4.07220513e-01  5.29111927e-01  2.83331454e-02]
 [ 1.27287240e+00  1.88009884e-01 -7.14894924e-01  1.99978396e-01
  -4.65683597e-01 -4.48698741e-01 -6.85019553e-01]
 [-1.25612762e+00  3.82145670e-01  1.01549788e-01  1.16249343e+00
   2.06188929e-01  6.83830901e-01  1.01090379e+00]
 [-4.18106699e-01  1.17235498e+00 -2.56055181e-01 -1.18052120e+00
   1.80557590e+00  6.42122503e-02  9.24969991e-02]
 [ 1.12854983e-01 -4.72012032e-01  1.45517934e+00 -7.67420771e-01
   1.21573452e+00  2.24916516e-01  1.02919454e-01]
 [ 5.51380823e-01 -2.26280810e-01  5.69664647e-01  6.68352046e+00
   2.02619790e+00  1.19227670e+00 -1.90953842e+00]
 [-1.64910940e+00  5.91475405e-03  1.21561438e+00  1.11284499e+00
   8.49615380e-01  1.44852408e+00  4.23001963e+00]
 [ 8.90554552e-01  1.36153751e+00  9.19560935e-01 -2.04782723e+00
  -9.45189973e-01 -9.68295152e-02  2.84316930e-01]
 [ 3.22951656e-01  9.14383950e-01 -1.78544751e+00 -1.21157185e+00
   1.58313189e+00  2.38140559e+00 -6.00934120e-01]
 [-1.23365311e+00 -1.39523560e+00 -5.54624906e-02  6.69595978e-01
  -6.40583263e-01 -5.84236779e-01 -1.85659619e-01]
 [-1.32297827e+00  5.87550195e-01  8.37548605e-01 -5.73722835e-02
   1.90405538e+00  1.17644049e+00 -5.48915443e-01]
 [ 6.70782595e+00  1.02732030e+00  2.72608453e-03  6.14053854e-03
   9.72633771e-01  2.59954997e-01  1.54492788e+00]
 [-5.56426619e-01  1.39359772e-01  1.31826721e-02 -3.16887628e-01
   1.37262797e+00 -8.56534557e-01 -8.92140618e-01]
 [ 7.19782937e-01  5.66718632e-01  6.07838458e-01 -1.38290938e-01
  -4.54034857e-01 -1.22771539e+00  2.46927223e-01]
 [ 1.61577164e-01  3.24200889e-01  9.64349796e-01  1.27959629e+00
  -5.92857361e-01 -1.95339503e+00 -3.06902726e-01]
 [ 8.00631679e-01  7.57462939e+00  1.78128979e+00  3.98283358e-01
   9.43570790e-01  1.17838091e+00 -2.23261308e-01]
 [-9.29445036e-01  4.35356097e-01 -2.61685591e-03  4.62988078e-02
   1.36141744e+00  3.03089356e-01  1.24614763e+00]
 [ 1.01917116e+00 -7.26183917e-01 -1.50185013e+00  7.66670946e-01
  -2.01642871e-01 -7.76921606e+00  2.99229209e-03]
 [-8.02830102e-01 -5.33116895e-02 -9.46757234e-01 -4.05442559e-01
   1.61590765e+00 -1.69629638e+00  1.00506047e+00]
 [-2.44997123e-01 -1.06038951e+00  7.27708226e-01  4.45671548e-01
  -9.38172120e-01 -3.83747734e-01 -5.12500192e-01]
 [-1.10536083e+00 -9.08478268e-01 -9.21999041e-01  7.19522717e-01
  -8.17681237e-01 -4.83827210e-01  5.62719605e-01]],